digraph Tree {
node [shape=box] ;
0 [label="Feature_36 <= 0.5\ngini = 0.8999\nsamples = 1437\nvalue = [150, 142, 139, 147, 137, 141, 148, 145, 142, 146]"] ;
1 [label="Feature_28 <= 2.5\ngini = 0.5367\nsamples = 229\nvalue = [147, 0, 4, 1, 3, 18, 5, 0, 3, 48]"] ;
0 -> 1 [labeldistance=2.5, labelangle=45, headlabel="True"] ;
2 [label="Feature_21 <= 0.5\ngini = 0.1568\nsamples = 157\nvalue = [144, 0, 2, 0, 3, 5, 3, 0, 0, 0]"] ;
1 -> 2 ;
3 [label="Feature_60 <= 13.5\ngini = 0.7222\nsamples = 12\nvalue = [1, 0, 1, 0, 2, 5, 3, 0, 0, 0]"] ;
2 -> 3 ;
4 [label="gini = 0.0\nsamples = 5\nvalue = [0, 0, 0, 0, 0, 5, 0, 0, 0, 0]"] ;
3 -> 4 ;
5 [label="Feature_51 <= 14.5\ngini = 0.6939\nsamples = 7\nvalue = [1, 0, 1, 0, 2, 0, 3, 0, 0, 0]"] ;
3 -> 5 ;
6 [label="Feature_44 <= 6.5\ngini = 0.625\nsamples = 4\nvalue = [1, 0, 1, 0, 2, 0, 0, 0, 0, 0]"] ;
5 -> 6 ;
7 [label="Feature_34 <= 11.0\ngini = 0.5\nsamples = 2\nvalue = [1, 0, 1, 0, 0, 0, 0, 0, 0, 0]"] ;
6 -> 7 ;
8 [label="gini = 0.0\nsamples = 1\nvalue = [0, 0, 1, 0, 0, 0, 0, 0, 0, 0]"] ;
7 -> 8 ;
9 [label="gini = 0.0\nsamples = 1\nvalue = [1, 0, 0, 0, 0, 0, 0, 0, 0, 0]"] ;
7 -> 9 ;
10 [label="gini = 0.0\nsamples = 2\nvalue = [0, 0, 0, 0, 2, 0, 0, 0, 0, 0]"] ;
6 -> 10 ;
11 [label="gini = 0.0\nsamples = 3\nvalue = [0, 0, 0, 0, 0, 0, 3, 0, 0, 0]"] ;
5 -> 11 ;
12 [label="Feature_13 <= 1.0\ngini = 0.0273\nsamples = 145\nvalue = [143, 0, 1, 0, 1, 0, 0, 0, 0, 0]"] ;
2 -> 12 ;
13 [label="gini = 0.0\nsamples = 1\nvalue = [0, 0, 0, 0, 1, 0, 0, 0, 0, 0]"] ;
12 -> 13 ;
14 [label="Feature_63 <= 1.5\ngini = 0.0138\nsamples = 144\nvalue = [143, 0, 1, 0, 0, 0, 0, 0, 0, 0]"] ;
12 -> 14 ;
15 [label="gini = 0.0\nsamples = 143\nvalue = [143, 0, 0, 0, 0, 0, 0, 0, 0, 0]"] ;
14 -> 15 ;
16 [label="gini = 0.0\nsamples = 1\nvalue = [0, 0, 1, 0, 0, 0, 0, 0, 0, 0]"] ;
14 -> 16 ;
17 [label="Feature_21 <= 6.5\ngini = 0.5177\nsamples = 72\nvalue = [3, 0, 2, 1, 0, 13, 2, 0, 3, 48]"] ;
1 -> 17 ;
18 [label="Feature_5 <= 2.0\ngini = 0.4922\nsamples = 16\nvalue = [0, 0, 2, 0, 0, 11, 2, 0, 0, 1]"] ;
17 -> 18 ;
19 [label="Feature_28 <= 9.5\ngini = 0.64\nsamples = 5\nvalue = [0, 0, 2, 0, 0, 0, 2, 0, 0, 1]"] ;
18 -> 19 ;
20 [label="gini = 0.0\nsamples = 2\nvalue = [0, 0, 2, 0, 0, 0, 0, 0, 0, 0]"] ;
19 -> 20 ;
21 [label="Feature_4 <= 3.5\ngini = 0.4444\nsamples = 3\nvalue = [0, 0, 0, 0, 0, 0, 2, 0, 0, 1]"] ;
19 -> 21 ;
22 [label="gini = 0.0\nsamples = 2\nvalue = [0, 0, 0, 0, 0, 0, 2, 0, 0, 0]"] ;
21 -> 22 ;
23 [label="gini = 0.0\nsamples = 1\nvalue = [0, 0, 0, 0, 0, 0, 0, 0, 0, 1]"] ;
21 -> 23 ;
24 [label="gini = 0.0\nsamples = 11\nvalue = [0, 0, 0, 0, 0, 11, 0, 0, 0, 0]"] ;
18 -> 24 ;
25 [label="Feature_34 <= 7.5\ngini = 0.2883\nsamples = 56\nvalue = [3, 0, 0, 1, 0, 2, 0, 0, 3, 47]"] ;
17 -> 25 ;
26 [label="Feature_18 <= 2.0\ngini = 0.0408\nsamples = 48\nvalue = [0, 0, 0, 1, 0, 0, 0, 0, 0, 47]"] ;
25 -> 26 ;
27 [label="gini = 0.0\nsamples = 1\nvalue = [0, 0, 0, 1, 0, 0, 0, 0, 0, 0]"] ;
26 -> 27 ;
28 [label="gini = 0.0\nsamples = 47\nvalue = [0, 0, 0, 0, 0, 0, 0, 0, 0, 47]"] ;
26 -> 28 ;
29 [label="Feature_60 <= 11.0\ngini = 0.6563\nsamples = 8\nvalue = [3, 0, 0, 0, 0, 2, 0, 0, 3, 0]"] ;
25 -> 29 ;
30 [label="Feature_13 <= 9.0\ngini = 0.48\nsamples = 5\nvalue = [0, 0, 0, 0, 0, 2, 0, 0, 3, 0]"] ;
29 -> 30 ;
31 [label="gini = 0.0\nsamples = 2\nvalue = [0, 0, 0, 0, 0, 2, 0, 0, 0, 0]"] ;
30 -> 31 ;
32 [label="gini = 0.0\nsamples = 3\nvalue = [0, 0, 0, 0, 0, 0, 0, 0, 3, 0]"] ;
30 -> 32 ;
33 [label="gini = 0.0\nsamples = 3\nvalue = [3, 0, 0, 0, 0, 0, 0, 0, 0, 0]"] ;
29 -> 33 ;
34 [label="Feature_21 <= 0.5\ngini = 0.8882\nsamples = 1208\nvalue = [3, 142, 135, 146, 134, 123, 143, 145, 139, 98]"] ;
0 -> 34 [labeldistance=2.5, labelangle=-45, headlabel="False"] ;
35 [label="Feature_42 <= 8.5\ngini = 0.7377\nsamples = 367\nvalue = [0, 34, 34, 13, 26, 112, 140, 5, 2, 1]"] ;
34 -> 35 ;
36 [label="Feature_5 <= 1.5\ngini = 0.6285\nsamples = 193\nvalue = [0, 27, 28, 13, 5, 110, 3, 4, 2, 1]"] ;
35 -> 36 ;
37 [label="Feature_19 <= 12.5\ngini = 0.7472\nsamples = 82\nvalue = [0, 27, 28, 12, 4, 2, 3, 3, 2, 1]"] ;
36 -> 37 ;
38 [label="Feature_37 <= 3.0\ngini = 0.6079\nsamples = 43\nvalue = [0, 0, 25, 9, 1, 2, 0, 3, 2, 1]"] ;
37 -> 38 ;
39 [label="Feature_4 <= 11.5\ngini = 0.074\nsamples = 26\nvalue = [0, 0, 25, 0, 0, 0, 0, 0, 1, 0]"] ;
38 -> 39 ;
40 [label="gini = 0.0\nsamples = 25\nvalue = [0, 0, 25, 0, 0, 0, 0, 0, 0, 0]"] ;
39 -> 40 ;
41 [label="gini = 0.0\nsamples = 1\nvalue = [0, 0, 0, 0, 0, 0, 0, 0, 1, 0]"] ;
39 -> 41 ;
42 [label="Feature_53 <= 11.0\ngini = 0.6644\nsamples = 17\nvalue = [0, 0, 0, 9, 1, 2, 0, 3, 1, 1]"] ;
38 -> 42 ;
43 [label="Feature_45 <= 2.5\ngini = 0.6667\nsamples = 6\nvalue = [0, 0, 0, 0, 1, 1, 0, 3, 0, 1]"] ;
42 -> 43 ;
44 [label="gini = 0.0\nsamples = 3\nvalue = [0, 0, 0, 0, 0, 0, 0, 3, 0, 0]"] ;
43 -> 44 ;
45 [label="Feature_37 <= 13.5\ngini = 0.6667\nsamples = 3\nvalue = [0, 0, 0, 0, 1, 1, 0, 0, 0, 1]"] ;
43 -> 45 ;
46 [label="gini = 0.0\nsamples = 1\nvalue = [0, 0, 0, 0, 0, 0, 0, 0, 0, 1]"] ;
45 -> 46 ;
47 [label="Feature_30 <= 2.0\ngini = 0.5\nsamples = 2\nvalue = [0, 0, 0, 0, 1, 1, 0, 0, 0, 0]"] ;
45 -> 47 ;
48 [label="gini = 0.0\nsamples = 1\nvalue = [0, 0, 0, 0, 0, 1, 0, 0, 0, 0]"] ;
47 -> 48 ;
49 [label="gini = 0.0\nsamples = 1\nvalue = [0, 0, 0, 0, 1, 0, 0, 0, 0, 0]"] ;
47 -> 49 ;
50 [label="Feature_26 <= 11.5\ngini = 0.314\nsamples = 11\nvalue = [0, 0, 0, 9, 0, 1, 0, 0, 1, 0]"] ;
42 -> 50 ;
51 [label="gini = 0.0\nsamples = 9\nvalue = [0, 0, 0, 9, 0, 0, 0, 0, 0, 0]"] ;
50 -> 51 ;
52 [label="Feature_2 <= 6.5\ngini = 0.5\nsamples = 2\nvalue = [0, 0, 0, 0, 0, 1, 0, 0, 1, 0]"] ;
50 -> 52 ;
53 [label="gini = 0.0\nsamples = 1\nvalue = [0, 0, 0, 0, 0, 0, 0, 0, 1, 0]"] ;
52 -> 53 ;
54 [label="gini = 0.0\nsamples = 1\nvalue = [0, 0, 0, 0, 0, 1, 0, 0, 0, 0]"] ;
52 -> 54 ;
55 [label="Feature_46 <= 0.5\ngini = 0.497\nsamples = 39\nvalue = [0, 27, 3, 3, 3, 0, 3, 0, 0, 0]"] ;
37 -> 55 ;
56 [label="Feature_27 <= 10.5\ngini = 0.1308\nsamples = 29\nvalue = [0, 27, 1, 0, 1, 0, 0, 0, 0, 0]"] ;
55 -> 56 ;
57 [label="Feature_44 <= 15.5\ngini = 0.5\nsamples = 2\nvalue = [0, 0, 1, 0, 1, 0, 0, 0, 0, 0]"] ;
56 -> 57 ;
58 [label="gini = 0.0\nsamples = 1\nvalue = [0, 0, 1, 0, 0, 0, 0, 0, 0, 0]"] ;
57 -> 58 ;
59 [label="gini = 0.0\nsamples = 1\nvalue = [0, 0, 0, 0, 1, 0, 0, 0, 0, 0]"] ;
57 -> 59 ;
60 [label="gini = 0.0\nsamples = 27\nvalue = [0, 27, 0, 0, 0, 0, 0, 0, 0, 0]"] ;
56 -> 60 ;
61 [label="Feature_35 <= 11.0\ngini = 0.74\nsamples = 10\nvalue = [0, 0, 2, 3, 2, 0, 3, 0, 0, 0]"] ;
55 -> 61 ;
62 [label="gini = 0.0\nsamples = 3\nvalue = [0, 0, 0, 3, 0, 0, 0, 0, 0, 0]"] ;
61 -> 62 ;
63 [label="Feature_57 <= 1.0\ngini = 0.6531\nsamples = 7\nvalue = [0, 0, 2, 0, 2, 0, 3, 0, 0, 0]"] ;
61 -> 63 ;
64 [label="Feature_4 <= 13.5\ngini = 0.48\nsamples = 5\nvalue = [0, 0, 0, 0, 2, 0, 3, 0, 0, 0]"] ;
63 -> 64 ;
65 [label="gini = 0.0\nsamples = 3\nvalue = [0, 0, 0, 0, 0, 0, 3, 0, 0, 0]"] ;
64 -> 65 ;
66 [label="gini = 0.0\nsamples = 2\nvalue = [0, 0, 0, 0, 2, 0, 0, 0, 0, 0]"] ;
64 -> 66 ;
67 [label="gini = 0.0\nsamples = 2\nvalue = [0, 0, 2, 0, 0, 0, 0, 0, 0, 0]"] ;
63 -> 67 ;
68 [label="Feature_18 <= 4.5\ngini = 0.0531\nsamples = 111\nvalue = [0, 0, 0, 1, 1, 108, 0, 1, 0, 0]"] ;
36 -> 68 ;
69 [label="Feature_3 <= 2.5\ngini = 0.6667\nsamples = 3\nvalue = [0, 0, 0, 1, 1, 0, 0, 1, 0, 0]"] ;
68 -> 69 ;
70 [label="gini = 0.0\nsamples = 1\nvalue = [0, 0, 0, 0, 1, 0, 0, 0, 0, 0]"] ;
69 -> 70 ;
71 [label="Feature_10 <= 8.0\ngini = 0.5\nsamples = 2\nvalue = [0, 0, 0, 1, 0, 0, 0, 1, 0, 0]"] ;
69 -> 71 ;
72 [label="gini = 0.0\nsamples = 1\nvalue = [0, 0, 0, 0, 0, 0, 0, 1, 0, 0]"] ;
71 -> 72 ;
73 [label="gini = 0.0\nsamples = 1\nvalue = [0, 0, 0, 1, 0, 0, 0, 0, 0, 0]"] ;
71 -> 73 ;
74 [label="gini = 0.0\nsamples = 108\nvalue = [0, 0, 0, 0, 0, 108, 0, 0, 0, 0]"] ;
68 -> 74 ;
75 [label="Feature_54 <= 0.5\ngini = 0.3625\nsamples = 174\nvalue = [0, 7, 6, 0, 21, 2, 137, 1, 0, 0]"] ;
35 -> 75 ;
76 [label="Feature_37 <= 3.5\ngini = 0.6003\nsamples = 36\nvalue = [0, 7, 1, 0, 21, 1, 5, 1, 0, 0]"] ;
75 -> 76 ;
77 [label="Feature_19 <= 13.0\ngini = 0.5417\nsamples = 12\nvalue = [0, 7, 1, 0, 0, 0, 4, 0, 0, 0]"] ;
76 -> 77 ;
78 [label="Feature_36 <= 8.5\ngini = 0.32\nsamples = 5\nvalue = [0, 0, 1, 0, 0, 0, 4, 0, 0, 0]"] ;
77 -> 78 ;
79 [label="gini = 0.0\nsamples = 1\nvalue = [0, 0, 1, 0, 0, 0, 0, 0, 0, 0]"] ;
78 -> 79 ;
80 [label="gini = 0.0\nsamples = 4\nvalue = [0, 0, 0, 0, 0, 0, 4, 0, 0, 0]"] ;
78 -> 80 ;
81 [label="gini = 0.0\nsamples = 7\nvalue = [0, 7, 0, 0, 0, 0, 0, 0, 0, 0]"] ;
77 -> 81 ;
82 [label="Feature_44 <= 7.5\ngini = 0.2292\nsamples = 24\nvalue = [0, 0, 0, 0, 21, 1, 1, 1, 0, 0]"] ;
76 -> 82 ;
83 [label="Feature_28 <= 6.0\ngini = 0.6667\nsamples = 3\nvalue = [0, 0, 0, 0, 0, 1, 1, 1, 0, 0]"] ;
82 -> 83 ;
84 [label="gini = 0.0\nsamples = 1\nvalue = [0, 0, 0, 0, 0, 0, 1, 0, 0, 0]"] ;
83 -> 84 ;
85 [label="Feature_17 <= 7.0\ngini = 0.5\nsamples = 2\nvalue = [0, 0, 0, 0, 0, 1, 0, 1, 0, 0]"] ;
83 -> 85 ;
86 [label="gini = 0.0\nsamples = 1\nvalue = [0, 0, 0, 0, 0, 1, 0, 0, 0, 0]"] ;
85 -> 86 ;
87 [label="gini = 0.0\nsamples = 1\nvalue = [0, 0, 0, 0, 0, 0, 0, 1, 0, 0]"] ;
85 -> 87 ;
88 [label="gini = 0.0\nsamples = 21\nvalue = [0, 0, 0, 0, 21, 0, 0, 0, 0, 0]"] ;
82 -> 88 ;
89 [label="Feature_1 <= 0.5\ngini = 0.0837\nsamples = 138\nvalue = [0, 0, 5, 0, 0, 1, 132, 0, 0, 0]"] ;
75 -> 89 ;
90 [label="Feature_5 <= 12.5\ngini = 0.0149\nsamples = 133\nvalue = [0, 0, 0, 0, 0, 1, 132, 0, 0, 0]"] ;
89 -> 90 ;
91 [label="gini = 0.0\nsamples = 132\nvalue = [0, 0, 0, 0, 0, 0, 132, 0, 0, 0]"] ;
90 -> 91 ;
92 [label="gini = 0.0\nsamples = 1\nvalue = [0, 0, 0, 0, 0, 1, 0, 0, 0, 0]"] ;
90 -> 92 ;
93 [label="gini = 0.0\nsamples = 5\nvalue = [0, 0, 5, 0, 0, 0, 0, 0, 0, 0]"] ;
89 -> 93 ;
94 [label="Feature_60 <= 2.5\ngini = 0.8598\nsamples = 841\nvalue = [3, 108, 101, 133, 108, 11, 3, 140, 137, 97]"] ;
34 -> 94 ;
95 [label="Feature_25 <= 6.5\ngini = 0.2444\nsamples = 112\nvalue = [0, 0, 2, 2, 5, 0, 0, 97, 0, 6]"] ;
94 -> 95 ;
96 [label="Feature_52 <= 12.5\ngini = 0.1622\nsamples = 105\nvalue = [0, 0, 2, 2, 2, 0, 0, 96, 0, 3]"] ;
95 -> 96 ;
97 [label="Feature_4 <= 2.0\ngini = 0.1297\nsamples = 103\nvalue = [0, 0, 0, 2, 2, 0, 0, 96, 0, 3]"] ;
96 -> 97 ;
98 [label="gini = 0.0\nsamples = 2\nvalue = [0, 0, 0, 0, 2, 0, 0, 0, 0, 0]"] ;
97 -> 98 ;
99 [label="Feature_17 <= 5.5\ngini = 0.0953\nsamples = 101\nvalue = [0, 0, 0, 2, 0, 0, 0, 96, 0, 3]"] ;
97 -> 99 ;
100 [label="Feature_57 <= 2.5\ngini = 0.0412\nsamples = 95\nvalue = [0, 0, 0, 2, 0, 0, 0, 93, 0, 0]"] ;
99 -> 100 ;
101 [label="Feature_57 <= 0.5\ngini = 0.0211\nsamples = 94\nvalue = [0, 0, 0, 1, 0, 0, 0, 93, 0, 0]"] ;
100 -> 101 ;
102 [label="gini = 0.0\nsamples = 91\nvalue = [0, 0, 0, 0, 0, 0, 0, 91, 0, 0]"] ;
101 -> 102 ;
103 [label="Feature_50 <= 8.0\ngini = 0.4444\nsamples = 3\nvalue = [0, 0, 0, 1, 0, 0, 0, 2, 0, 0]"] ;
101 -> 103 ;
104 [label="gini = 0.0\nsamples = 1\nvalue = [0, 0, 0, 1, 0, 0, 0, 0, 0, 0]"] ;
103 -> 104 ;
105 [label="gini = 0.0\nsamples = 2\nvalue = [0, 0, 0, 0, 0, 0, 0, 2, 0, 0]"] ;
103 -> 105 ;
106 [label="gini = 0.0\nsamples = 1\nvalue = [0, 0, 0, 1, 0, 0, 0, 0, 0, 0]"] ;
100 -> 106 ;
107 [label="Feature_27 <= 13.0\ngini = 0.5\nsamples = 6\nvalue = [0, 0, 0, 0, 0, 0, 0, 3, 0, 3]"] ;
99 -> 107 ;
108 [label="gini = 0.0\nsamples = 3\nvalue = [0, 0, 0, 0, 0, 0, 0, 3, 0, 0]"] ;
107 -> 108 ;
109 [label="gini = 0.0\nsamples = 3\nvalue = [0, 0, 0, 0, 0, 0, 0, 0, 0, 3]"] ;
107 -> 109 ;
110 [label="gini = 0.0\nsamples = 2\nvalue = [0, 0, 2, 0, 0, 0, 0, 0, 0, 0]"] ;
96 -> 110 ;
111 [label="Feature_10 <= 13.5\ngini = 0.6122\nsamples = 7\nvalue = [0, 0, 0, 0, 3, 0, 0, 1, 0, 3]"] ;
95 -> 111 ;
112 [label="gini = 0.0\nsamples = 3\nvalue = [0, 0, 0, 0, 3, 0, 0, 0, 0, 0]"] ;
111 -> 112 ;
113 [label="Feature_37 <= 8.5\ngini = 0.375\nsamples = 4\nvalue = [0, 0, 0, 0, 0, 0, 0, 1, 0, 3]"] ;
111 -> 113 ;
114 [label="gini = 0.0\nsamples = 3\nvalue = [0, 0, 0, 0, 0, 0, 0, 0, 0, 3]"] ;
113 -> 114 ;
115 [label="gini = 0.0\nsamples = 1\nvalue = [0, 0, 0, 0, 0, 0, 0, 1, 0, 0]"] ;
113 -> 115 ;
116 [label="Feature_33 <= 3.5\ngini = 0.8527\nsamples = 729\nvalue = [3, 108, 99, 131, 103, 11, 3, 43, 137, 91]"] ;
94 -> 116 ;
117 [label="Feature_43 <= 1.5\ngini = 0.8247\nsamples = 596\nvalue = [1, 90, 98, 131, 6, 10, 1, 35, 134, 90]"] ;
116 -> 117 ;
118 [label="Feature_29 <= 13.5\ngini = 0.66\nsamples = 240\nvalue = [0, 17, 5, 112, 0, 8, 0, 2, 16, 80]"] ;
117 -> 118 ;
119 [label="Feature_34 <= 3.5\ngini = 0.4393\nsamples = 148\nvalue = [0, 5, 1, 109, 0, 5, 0, 2, 15, 11]"] ;
118 -> 119 ;
120 [label="Feature_26 <= 7.5\ngini = 0.2499\nsamples = 124\nvalue = [0, 3, 1, 107, 0, 5, 0, 1, 0, 7]"] ;
119 -> 120 ;
121 [label="Feature_19 <= 9.0\ngini = 0.0873\nsamples = 111\nvalue = [0, 2, 1, 106, 0, 0, 0, 0, 0, 2]"] ;
120 -> 121 ;
122 [label="Feature_4 <= 7.5\ngini = 0.019\nsamples = 104\nvalue = [0, 0, 0, 103, 0, 0, 0, 0, 0, 1]"] ;
121 -> 122 ;
123 [label="Feature_4 <= 6.0\ngini = 0.4444\nsamples = 3\nvalue = [0, 0, 0, 2, 0, 0, 0, 0, 0, 1]"] ;
122 -> 123 ;
124 [label="gini = 0.0\nsamples = 2\nvalue = [0, 0, 0, 2, 0, 0, 0, 0, 0, 0]"] ;
123 -> 124 ;
125 [label="gini = 0.0\nsamples = 1\nvalue = [0, 0, 0, 0, 0, 0, 0, 0, 0, 1]"] ;
123 -> 125 ;
126 [label="gini = 0.0\nsamples = 101\nvalue = [0, 0, 0, 101, 0, 0, 0, 0, 0, 0]"] ;
122 -> 126 ;
127 [label="Feature_10 <= 14.5\ngini = 0.6939\nsamples = 7\nvalue = [0, 2, 1, 3, 0, 0, 0, 0, 0, 1]"] ;
121 -> 127 ;
128 [label="Feature_11 <= 14.0\ngini = 0.625\nsamples = 4\nvalue = [0, 2, 1, 0, 0, 0, 0, 0, 0, 1]"] ;
127 -> 128 ;
129 [label="Feature_27 <= 7.5\ngini = 0.5\nsamples = 2\nvalue = [0, 0, 1, 0, 0, 0, 0, 0, 0, 1]"] ;
128 -> 129 ;
130 [label="gini = 0.0\nsamples = 1\nvalue = [0, 0, 1, 0, 0, 0, 0, 0, 0, 0]"] ;
129 -> 130 ;
131 [label="gini = 0.0\nsamples = 1\nvalue = [0, 0, 0, 0, 0, 0, 0, 0, 0, 1]"] ;
129 -> 131 ;
132 [label="gini = 0.0\nsamples = 2\nvalue = [0, 2, 0, 0, 0, 0, 0, 0, 0, 0]"] ;
128 -> 132 ;
133 [label="gini = 0.0\nsamples = 3\nvalue = [0, 0, 0, 3, 0, 0, 0, 0, 0, 0]"] ;
127 -> 133 ;
134 [label="Feature_59 <= 13.5\ngini = 0.6864\nsamples = 13\nvalue = [0, 1, 0, 1, 0, 5, 0, 1, 0, 5]"] ;
120 -> 134 ;
135 [label="Feature_34 <= 0.5\ngini = 0.449\nsamples = 7\nvalue = [0, 1, 0, 1, 0, 0, 0, 0, 0, 5]"] ;
134 -> 135 ;
136 [label="Feature_11 <= 14.0\ngini = 0.5\nsamples = 2\nvalue = [0, 1, 0, 1, 0, 0, 0, 0, 0, 0]"] ;
135 -> 136 ;
137 [label="gini = 0.0\nsamples = 1\nvalue = [0, 0, 0, 1, 0, 0, 0, 0, 0, 0]"] ;
136 -> 137 ;
138 [label="gini = 0.0\nsamples = 1\nvalue = [0, 1, 0, 0, 0, 0, 0, 0, 0, 0]"] ;
136 -> 138 ;
139 [label="gini = 0.0\nsamples = 5\nvalue = [0, 0, 0, 0, 0, 0, 0, 0, 0, 5]"] ;
135 -> 139 ;
140 [label="Feature_23 <= 1.0\ngini = 0.2778\nsamples = 6\nvalue = [0, 0, 0, 0, 0, 5, 0, 1, 0, 0]"] ;
134 -> 140 ;
141 [label="gini = 0.0\nsamples = 5\nvalue = [0, 0, 0, 0, 0, 5, 0, 0, 0, 0]"] ;
140 -> 141 ;
142 [label="gini = 0.0\nsamples = 1\nvalue = [0, 0, 0, 0, 0, 0, 0, 1, 0, 0]"] ;
140 -> 142 ;
143 [label="Feature_42 <= 4.0\ngini = 0.566\nsamples = 24\nvalue = [0, 2, 0, 2, 0, 0, 0, 1, 15, 4]"] ;
119 -> 143 ;
144 [label="Feature_4 <= 11.5\ngini = 0.6914\nsamples = 9\nvalue = [0, 2, 0, 2, 0, 0, 0, 1, 0, 4]"] ;
143 -> 144 ;
145 [label="gini = 0.0\nsamples = 4\nvalue = [0, 0, 0, 0, 0, 0, 0, 0, 0, 4]"] ;
144 -> 145 ;
146 [label="Feature_17 <= 0.5\ngini = 0.64\nsamples = 5\nvalue = [0, 2, 0, 2, 0, 0, 0, 1, 0, 0]"] ;
144 -> 146 ;
147 [label="Feature_45 <= 8.5\ngini = 0.4444\nsamples = 3\nvalue = [0, 2, 0, 0, 0, 0, 0, 1, 0, 0]"] ;
146 -> 147 ;
148 [label="gini = 0.0\nsamples = 1\nvalue = [0, 0, 0, 0, 0, 0, 0, 1, 0, 0]"] ;
147 -> 148 ;
149 [label="gini = 0.0\nsamples = 2\nvalue = [0, 2, 0, 0, 0, 0, 0, 0, 0, 0]"] ;
147 -> 149 ;
150 [label="gini = 0.0\nsamples = 2\nvalue = [0, 0, 0, 2, 0, 0, 0, 0, 0, 0]"] ;
146 -> 150 ;
151 [label="gini = 0.0\nsamples = 15\nvalue = [0, 0, 0, 0, 0, 0, 0, 0, 15, 0]"] ;
143 -> 151 ;
152 [label="Feature_3 <= 0.5\ngini = 0.4164\nsamples = 92\nvalue = [0, 12, 4, 3, 0, 3, 0, 0, 1, 69]"] ;
118 -> 152 ;
153 [label="Feature_35 <= 7.5\ngini = 0.375\nsamples = 12\nvalue = [0, 9, 0, 0, 0, 0, 0, 0, 0, 3]"] ;
152 -> 153 ;
154 [label="gini = 0.0\nsamples = 9\nvalue = [0, 9, 0, 0, 0, 0, 0, 0, 0, 0]"] ;
153 -> 154 ;
155 [label="gini = 0.0\nsamples = 3\nvalue = [0, 0, 0, 0, 0, 0, 0, 0, 0, 3]"] ;
153 -> 155 ;
156 [label="Feature_27 <= 3.5\ngini = 0.3125\nsamples = 80\nvalue = [0, 3, 4, 3, 0, 3, 0, 0, 1, 66]"] ;
152 -> 156 ;
157 [label="Feature_55 <= 0.5\ngini = 0.7692\nsamples = 13\nvalue = [0, 3, 4, 2, 0, 1, 0, 0, 0, 3]"] ;
156 -> 157 ;
158 [label="Feature_25 <= 3.5\ngini = 0.716\nsamples = 9\nvalue = [0, 3, 0, 2, 0, 1, 0, 0, 0, 3]"] ;
157 -> 158 ;
159 [label="Feature_50 <= 0.5\ngini = 0.6111\nsamples = 6\nvalue = [0, 3, 0, 2, 0, 1, 0, 0, 0, 0]"] ;
158 -> 159 ;
160 [label="gini = 0.0\nsamples = 3\nvalue = [0, 3, 0, 0, 0, 0, 0, 0, 0, 0]"] ;
159 -> 160 ;
161 [label="Feature_4 <= 12.5\ngini = 0.4444\nsamples = 3\nvalue = [0, 0, 0, 2, 0, 1, 0, 0, 0, 0]"] ;
159 -> 161 ;
162 [label="gini = 0.0\nsamples = 1\nvalue = [0, 0, 0, 0, 0, 1, 0, 0, 0, 0]"] ;
161 -> 162 ;
163 [label="gini = 0.0\nsamples = 2\nvalue = [0, 0, 0, 2, 0, 0, 0, 0, 0, 0]"] ;
161 -> 163 ;
164 [label="gini = 0.0\nsamples = 3\nvalue = [0, 0, 0, 0, 0, 0, 0, 0, 0, 3]"] ;
158 -> 164 ;
165 [label="gini = 0.0\nsamples = 4\nvalue = [0, 0, 4, 0, 0, 0, 0, 0, 0, 0]"] ;
157 -> 165 ;
166 [label="Feature_21 <= 4.0\ngini = 0.1145\nsamples = 67\nvalue = [0, 0, 0, 1, 0, 2, 0, 0, 1, 63]"] ;
156 -> 166 ;
167 [label="gini = 0.0\nsamples = 2\nvalue = [0, 0, 0, 0, 0, 2, 0, 0, 0, 0]"] ;
166 -> 167 ;
168 [label="Feature_42 <= 11.0\ngini = 0.0601\nsamples = 65\nvalue = [0, 0, 0, 1, 0, 0, 0, 0, 1, 63]"] ;
166 -> 168 ;
169 [label="Feature_28 <= 4.0\ngini = 0.0308\nsamples = 64\nvalue = [0, 0, 0, 0, 0, 0, 0, 0, 1, 63]"] ;
168 -> 169 ;
170 [label="gini = 0.0\nsamples = 1\nvalue = [0, 0, 0, 0, 0, 0, 0, 0, 1, 0]"] ;
169 -> 170 ;
171 [label="gini = 0.0\nsamples = 63\nvalue = [0, 0, 0, 0, 0, 0, 0, 0, 0, 63]"] ;
169 -> 171 ;
172 [label="gini = 0.0\nsamples = 1\nvalue = [0, 0, 0, 1, 0, 0, 0, 0, 0, 0]"] ;
168 -> 172 ;
173 [label="Feature_27 <= 10.5\ngini = 0.7673\nsamples = 356\nvalue = [1, 73, 93, 19, 6, 2, 1, 33, 118, 10]"] ;
117 -> 173 ;
174 [label="Feature_61 <= 0.5\ngini = 0.6418\nsamples = 160\nvalue = [1, 5, 88, 9, 3, 0, 0, 31, 18, 5]"] ;
173 -> 174 ;
175 [label="Feature_50 <= 7.0\ngini = 0.3577\nsamples = 39\nvalue = [1, 0, 1, 1, 2, 0, 0, 31, 3, 0]"] ;
174 -> 175 ;
176 [label="Feature_13 <= 7.5\ngini = 0.1644\nsamples = 34\nvalue = [0, 0, 0, 1, 2, 0, 0, 31, 0, 0]"] ;
175 -> 176 ;
177 [label="gini = 0.0\nsamples = 2\nvalue = [0, 0, 0, 0, 2, 0, 0, 0, 0, 0]"] ;
176 -> 177 ;
178 [label="Feature_2 <= 7.5\ngini = 0.0605\nsamples = 32\nvalue = [0, 0, 0, 1, 0, 0, 0, 31, 0, 0]"] ;
176 -> 178 ;
179 [label="gini = 0.0\nsamples = 31\nvalue = [0, 0, 0, 0, 0, 0, 0, 31, 0, 0]"] ;
178 -> 179 ;
180 [label="gini = 0.0\nsamples = 1\nvalue = [0, 0, 0, 1, 0, 0, 0, 0, 0, 0]"] ;
178 -> 180 ;
181 [label="Feature_53 <= 5.5\ngini = 0.56\nsamples = 5\nvalue = [1, 0, 1, 0, 0, 0, 0, 0, 3, 0]"] ;
175 -> 181 ;
182 [label="gini = 0.0\nsamples = 3\nvalue = [0, 0, 0, 0, 0, 0, 0, 0, 3, 0]"] ;
181 -> 182 ;
183 [label="Feature_9 <= 5.5\ngini = 0.5\nsamples = 2\nvalue = [1, 0, 1, 0, 0, 0, 0, 0, 0, 0]"] ;
181 -> 183 ;
184 [label="gini = 0.0\nsamples = 1\nvalue = [1, 0, 0, 0, 0, 0, 0, 0, 0, 0]"] ;
183 -> 184 ;
185 [label="gini = 0.0\nsamples = 1\nvalue = [0, 0, 1, 0, 0, 0, 0, 0, 0, 0]"] ;
183 -> 185 ;
186 [label="Feature_26 <= 6.5\ngini = 0.4598\nsamples = 121\nvalue = [0, 5, 87, 8, 1, 0, 0, 0, 15, 5]"] ;
174 -> 186 ;
187 [label="Feature_45 <= 12.5\ngini = 0.2146\nsamples = 93\nvalue = [0, 2, 82, 8, 0, 0, 0, 0, 1, 0]"] ;
186 -> 187 ;
188 [label="Feature_14 <= 4.5\ngini = 0.1117\nsamples = 86\nvalue = [0, 2, 81, 2, 0, 0, 0, 0, 1, 0]"] ;
187 -> 188 ;
189 [label="Feature_50 <= 1.5\ngini = 0.0694\nsamples = 84\nvalue = [0, 2, 81, 0, 0, 0, 0, 0, 1, 0]"] ;
188 -> 189 ;
190 [label="Feature_20 <= 10.5\ngini = 0.4444\nsamples = 3\nvalue = [0, 2, 1, 0, 0, 0, 0, 0, 0, 0]"] ;
189 -> 190 ;
191 [label="gini = 0.0\nsamples = 1\nvalue = [0, 0, 1, 0, 0, 0, 0, 0, 0, 0]"] ;
190 -> 191 ;
192 [label="gini = 0.0\nsamples = 2\nvalue = [0, 2, 0, 0, 0, 0, 0, 0, 0, 0]"] ;
190 -> 192 ;
193 [label="Feature_45 <= 11.5\ngini = 0.0244\nsamples = 81\nvalue = [0, 0, 80, 0, 0, 0, 0, 0, 1, 0]"] ;
189 -> 193 ;
194 [label="gini = 0.0\nsamples = 79\nvalue = [0, 0, 79, 0, 0, 0, 0, 0, 0, 0]"] ;
193 -> 194 ;
195 [label="Feature_9 <= 2.0\ngini = 0.5\nsamples = 2\nvalue = [0, 0, 1, 0, 0, 0, 0, 0, 1, 0]"] ;
193 -> 195 ;
196 [label="gini = 0.0\nsamples = 1\nvalue = [0, 0, 0, 0, 0, 0, 0, 0, 1, 0]"] ;
195 -> 196 ;
197 [label="gini = 0.0\nsamples = 1\nvalue = [0, 0, 1, 0, 0, 0, 0, 0, 0, 0]"] ;
195 -> 197 ;
198 [label="gini = 0.0\nsamples = 2\nvalue = [0, 0, 0, 2, 0, 0, 0, 0, 0, 0]"] ;
188 -> 198 ;
199 [label="Feature_27 <= 0.5\ngini = 0.2449\nsamples = 7\nvalue = [0, 0, 1, 6, 0, 0, 0, 0, 0, 0]"] ;
187 -> 199 ;
200 [label="gini = 0.0\nsamples = 1\nvalue = [0, 0, 1, 0, 0, 0, 0, 0, 0, 0]"] ;
199 -> 200 ;
201 [label="gini = 0.0\nsamples = 6\nvalue = [0, 0, 0, 6, 0, 0, 0, 0, 0, 0]"] ;
199 -> 201 ;
202 [label="Feature_35 <= 12.0\ngini = 0.6735\nsamples = 28\nvalue = [0, 3, 5, 0, 1, 0, 0, 0, 14, 5]"] ;
186 -> 202 ;
203 [label="Feature_59 <= 12.5\ngini = 0.5679\nsamples = 9\nvalue = [0, 3, 5, 0, 0, 0, 0, 0, 1, 0]"] ;
202 -> 203 ;
204 [label="Feature_61 <= 11.5\ngini = 0.375\nsamples = 4\nvalue = [0, 3, 0, 0, 0, 0, 0, 0, 1, 0]"] ;
203 -> 204 ;
205 [label="gini = 0.0\nsamples = 3\nvalue = [0, 3, 0, 0, 0, 0, 0, 0, 0, 0]"] ;
204 -> 205 ;
206 [label="gini = 0.0\nsamples = 1\nvalue = [0, 0, 0, 0, 0, 0, 0, 0, 1, 0]"] ;
204 -> 206 ;
207 [label="gini = 0.0\nsamples = 5\nvalue = [0, 0, 5, 0, 0, 0, 0, 0, 0, 0]"] ;
203 -> 207 ;
208 [label="Feature_29 <= 14.5\ngini = 0.4598\nsamples = 19\nvalue = [0, 0, 0, 0, 1, 0, 0, 0, 13, 5]"] ;
202 -> 208 ;
209 [label="gini = 0.0\nsamples = 12\nvalue = [0, 0, 0, 0, 0, 0, 0, 0, 12, 0]"] ;
208 -> 209 ;
210 [label="Feature_20 <= 1.5\ngini = 0.449\nsamples = 7\nvalue = [0, 0, 0, 0, 1, 0, 0, 0, 1, 5]"] ;
208 -> 210 ;
211 [label="Feature_20 <= 0.5\ngini = 0.5\nsamples = 2\nvalue = [0, 0, 0, 0, 1, 0, 0, 0, 1, 0]"] ;
210 -> 211 ;
212 [label="gini = 0.0\nsamples = 1\nvalue = [0, 0, 0, 0, 1, 0, 0, 0, 0, 0]"] ;
211 -> 212 ;
213 [label="gini = 0.0\nsamples = 1\nvalue = [0, 0, 0, 0, 0, 0, 0, 0, 1, 0]"] ;
211 -> 213 ;
214 [label="gini = 0.0\nsamples = 5\nvalue = [0, 0, 0, 0, 0, 0, 0, 0, 0, 5]"] ;
210 -> 214 ;
215 [label="Feature_20 <= 15.5\ngini = 0.615\nsamples = 196\nvalue = [0, 68, 5, 10, 3, 2, 1, 2, 100, 5]"] ;
173 -> 215 ;
216 [label="Feature_18 <= 2.5\ngini = 0.3413\nsamples = 114\nvalue = [0, 5, 0, 6, 1, 2, 1, 2, 92, 5]"] ;
215 -> 216 ;
217 [label="Feature_2 <= 4.5\ngini = 0.6446\nsamples = 11\nvalue = [0, 2, 0, 6, 0, 0, 1, 1, 1, 0]"] ;
216 -> 217 ;
218 [label="Feature_20 <= 13.0\ngini = 0.72\nsamples = 5\nvalue = [0, 2, 0, 0, 0, 0, 1, 1, 1, 0]"] ;
217 -> 218 ;
219 [label="Feature_37 <= 5.5\ngini = 0.6667\nsamples = 3\nvalue = [0, 0, 0, 0, 0, 0, 1, 1, 1, 0]"] ;
218 -> 219 ;
220 [label="gini = 0.0\nsamples = 1\nvalue = [0, 0, 0, 0, 0, 0, 0, 0, 1, 0]"] ;
219 -> 220 ;
221 [label="Feature_51 <= 8.0\ngini = 0.5\nsamples = 2\nvalue = [0, 0, 0, 0, 0, 0, 1, 1, 0, 0]"] ;
219 -> 221 ;
222 [label="gini = 0.0\nsamples = 1\nvalue = [0, 0, 0, 0, 0, 0, 0, 1, 0, 0]"] ;
221 -> 222 ;
223 [label="gini = 0.0\nsamples = 1\nvalue = [0, 0, 0, 0, 0, 0, 1, 0, 0, 0]"] ;
221 -> 223 ;
224 [label="gini = 0.0\nsamples = 2\nvalue = [0, 2, 0, 0, 0, 0, 0, 0, 0, 0]"] ;
218 -> 224 ;
225 [label="gini = 0.0\nsamples = 6\nvalue = [0, 0, 0, 6, 0, 0, 0, 0, 0, 0]"] ;
217 -> 225 ;
226 [label="Feature_50 <= 0.5\ngini = 0.2157\nsamples = 103\nvalue = [0, 3, 0, 0, 1, 2, 0, 1, 91, 5]"] ;
216 -> 226 ;
227 [label="Feature_54 <= 1.0\ngini = 0.66\nsamples = 10\nvalue = [0, 0, 0, 0, 1, 0, 0, 1, 4, 4]"] ;
226 -> 227 ;
228 [label="Feature_36 <= 14.5\ngini = 0.5\nsamples = 6\nvalue = [0, 0, 0, 0, 1, 0, 0, 1, 0, 4]"] ;
227 -> 228 ;
229 [label="gini = 0.0\nsamples = 4\nvalue = [0, 0, 0, 0, 0, 0, 0, 0, 0, 4]"] ;
228 -> 229 ;
230 [label="Feature_9 <= 1.5\ngini = 0.5\nsamples = 2\nvalue = [0, 0, 0, 0, 1, 0, 0, 1, 0, 0]"] ;
228 -> 230 ;
231 [label="gini = 0.0\nsamples = 1\nvalue = [0, 0, 0, 0, 0, 0, 0, 1, 0, 0]"] ;
230 -> 231 ;
232 [label="gini = 0.0\nsamples = 1\nvalue = [0, 0, 0, 0, 1, 0, 0, 0, 0, 0]"] ;
230 -> 232 ;
233 [label="gini = 0.0\nsamples = 4\nvalue = [0, 0, 0, 0, 0, 0, 0, 0, 4, 0]"] ;
227 -> 233 ;
234 [label="Feature_21 <= 4.5\ngini = 0.1233\nsamples = 93\nvalue = [0, 3, 0, 0, 0, 2, 0, 0, 87, 1]"] ;
226 -> 234 ;
235 [label="Feature_26 <= 7.5\ngini = 0.6122\nsamples = 7\nvalue = [0, 3, 0, 0, 0, 1, 0, 0, 3, 0]"] ;
234 -> 235 ;
236 [label="gini = 0.0\nsamples = 3\nvalue = [0, 0, 0, 0, 0, 0, 0, 0, 3, 0]"] ;
235 -> 236 ;
237 [label="Feature_35 <= 9.0\ngini = 0.375\nsamples = 4\nvalue = [0, 3, 0, 0, 0, 1, 0, 0, 0, 0]"] ;
235 -> 237 ;
238 [label="gini = 0.0\nsamples = 1\nvalue = [0, 0, 0, 0, 0, 1, 0, 0, 0, 0]"] ;
237 -> 238 ;
239 [label="gini = 0.0\nsamples = 3\nvalue = [0, 3, 0, 0, 0, 0, 0, 0, 0, 0]"] ;
237 -> 239 ;
240 [label="Feature_46 <= 10.5\ngini = 0.0457\nsamples = 86\nvalue = [0, 0, 0, 0, 0, 1, 0, 0, 84, 1]"] ;
234 -> 240 ;
241 [label="Feature_4 <= 1.0\ngini = 0.0233\nsamples = 85\nvalue = [0, 0, 0, 0, 0, 1, 0, 0, 84, 0]"] ;
240 -> 241 ;
242 [label="Feature_60 <= 9.5\ngini = 0.5\nsamples = 2\nvalue = [0, 0, 0, 0, 0, 1, 0, 0, 1, 0]"] ;
241 -> 242 ;
243 [label="gini = 0.0\nsamples = 1\nvalue = [0, 0, 0, 0, 0, 1, 0, 0, 0, 0]"] ;
242 -> 243 ;
244 [label="gini = 0.0\nsamples = 1\nvalue = [0, 0, 0, 0, 0, 0, 0, 0, 1, 0]"] ;
242 -> 244 ;
245 [label="gini = 0.0\nsamples = 83\nvalue = [0, 0, 0, 0, 0, 0, 0, 0, 83, 0]"] ;
241 -> 245 ;
246 [label="gini = 0.0\nsamples = 1\nvalue = [0, 0, 0, 0, 0, 0, 0, 0, 0, 1]"] ;
240 -> 246 ;
247 [label="Feature_10 <= 13.5\ngini = 0.3935\nsamples = 82\nvalue = [0, 63, 5, 4, 2, 0, 0, 0, 8, 0]"] ;
215 -> 247 ;
248 [label="Feature_41 <= 7.0\ngini = 0.1397\nsamples = 68\nvalue = [0, 63, 0, 1, 2, 0, 0, 0, 2, 0]"] ;
247 -> 248 ;
249 [label="Feature_52 <= 7.5\ngini = 0.0877\nsamples = 66\nvalue = [0, 63, 0, 1, 0, 0, 0, 0, 2, 0]"] ;
248 -> 249 ;
250 [label="Feature_51 <= 13.0\ngini = 0.4444\nsamples = 3\nvalue = [0, 1, 0, 0, 0, 0, 0, 0, 2, 0]"] ;
249 -> 250 ;
251 [label="gini = 0.0\nsamples = 2\nvalue = [0, 0, 0, 0, 0, 0, 0, 0, 2, 0]"] ;
250 -> 251 ;
252 [label="gini = 0.0\nsamples = 1\nvalue = [0, 1, 0, 0, 0, 0, 0, 0, 0, 0]"] ;
250 -> 252 ;
253 [label="Feature_19 <= 5.5\ngini = 0.0312\nsamples = 63\nvalue = [0, 62, 0, 1, 0, 0, 0, 0, 0, 0]"] ;
249 -> 253 ;
254 [label="gini = 0.0\nsamples = 1\nvalue = [0, 0, 0, 1, 0, 0, 0, 0, 0, 0]"] ;
253 -> 254 ;
255 [label="gini = 0.0\nsamples = 62\nvalue = [0, 62, 0, 0, 0, 0, 0, 0, 0, 0]"] ;
253 -> 255 ;
256 [label="gini = 0.0\nsamples = 2\nvalue = [0, 0, 0, 0, 2, 0, 0, 0, 0, 0]"] ;
248 -> 256 ;
257 [label="Feature_60 <= 13.5\ngini = 0.6429\nsamples = 14\nvalue = [0, 0, 5, 3, 0, 0, 0, 0, 6, 0]"] ;
247 -> 257 ;
258 [label="Feature_19 <= 5.0\ngini = 0.2449\nsamples = 7\nvalue = [0, 0, 0, 1, 0, 0, 0, 0, 6, 0]"] ;
257 -> 258 ;
259 [label="gini = 0.0\nsamples = 1\nvalue = [0, 0, 0, 1, 0, 0, 0, 0, 0, 0]"] ;
258 -> 259 ;
260 [label="gini = 0.0\nsamples = 6\nvalue = [0, 0, 0, 0, 0, 0, 0, 0, 6, 0]"] ;
258 -> 260 ;
261 [label="Feature_42 <= 3.0\ngini = 0.4082\nsamples = 7\nvalue = [0, 0, 5, 2, 0, 0, 0, 0, 0, 0]"] ;
257 -> 261 ;
262 [label="gini = 0.0\nsamples = 2\nvalue = [0, 0, 0, 2, 0, 0, 0, 0, 0, 0]"] ;
261 -> 262 ;
263 [label="gini = 0.0\nsamples = 5\nvalue = [0, 0, 5, 0, 0, 0, 0, 0, 0, 0]"] ;
261 -> 263 ;
264 [label="Feature_13 <= 9.5\ngini = 0.445\nsamples = 133\nvalue = [2, 18, 1, 0, 97, 1, 2, 8, 3, 1]"] ;
116 -> 264 ;
265 [label="Feature_37 <= 3.5\ngini = 0.1168\nsamples = 98\nvalue = [0, 4, 0, 0, 92, 0, 1, 0, 0, 1]"] ;
264 -> 265 ;
266 [label="gini = 0.0\nsamples = 3\nvalue = [0, 3, 0, 0, 0, 0, 0, 0, 0, 0]"] ;
265 -> 266 ;
267 [label="Feature_10 <= 14.5\ngini = 0.0618\nsamples = 95\nvalue = [0, 1, 0, 0, 92, 0, 1, 0, 0, 1]"] ;
265 -> 267 ;
268 [label="Feature_6 <= 8.0\ngini = 0.0213\nsamples = 93\nvalue = [0, 0, 0, 0, 92, 0, 0, 0, 0, 1]"] ;
267 -> 268 ;
269 [label="gini = 0.0\nsamples = 92\nvalue = [0, 0, 0, 0, 92, 0, 0, 0, 0, 0]"] ;
268 -> 269 ;
270 [label="gini = 0.0\nsamples = 1\nvalue = [0, 0, 0, 0, 0, 0, 0, 0, 0, 1]"] ;
268 -> 270 ;
271 [label="Feature_13 <= 2.5\ngini = 0.5\nsamples = 2\nvalue = [0, 1, 0, 0, 0, 0, 1, 0, 0, 0]"] ;
267 -> 271 ;
272 [label="gini = 0.0\nsamples = 1\nvalue = [0, 0, 0, 0, 0, 0, 1, 0, 0, 0]"] ;
271 -> 272 ;
273 [label="gini = 0.0\nsamples = 1\nvalue = [0, 1, 0, 0, 0, 0, 0, 0, 0, 0]"] ;
271 -> 273 ;
274 [label="Feature_20 <= 13.5\ngini = 0.7543\nsamples = 35\nvalue = [2, 14, 1, 0, 5, 1, 1, 8, 3, 0]"] ;
264 -> 274 ;
275 [label="Feature_19 <= 3.5\ngini = 0.7258\nsamples = 19\nvalue = [2, 0, 1, 0, 5, 0, 1, 8, 2, 0]"] ;
274 -> 275 ;
276 [label="gini = 0.0\nsamples = 8\nvalue = [0, 0, 0, 0, 0, 0, 0, 8, 0, 0]"] ;
275 -> 276 ;
277 [label="Feature_22 <= 2.5\ngini = 0.7107\nsamples = 11\nvalue = [2, 0, 1, 0, 5, 0, 1, 0, 2, 0]"] ;
275 -> 277 ;
278 [label="Feature_10 <= 8.5\ngini = 0.2778\nsamples = 6\nvalue = [0, 0, 0, 0, 5, 0, 1, 0, 0, 0]"] ;
277 -> 278 ;
279 [label="gini = 0.0\nsamples = 5\nvalue = [0, 0, 0, 0, 5, 0, 0, 0, 0, 0]"] ;
278 -> 279 ;
280 [label="gini = 0.0\nsamples = 1\nvalue = [0, 0, 0, 0, 0, 0, 1, 0, 0, 0]"] ;
278 -> 280 ;
281 [label="Feature_37 <= 9.5\ngini = 0.64\nsamples = 5\nvalue = [2, 0, 1, 0, 0, 0, 0, 0, 2, 0]"] ;
277 -> 281 ;
282 [label="Feature_6 <= 1.5\ngini = 0.4444\nsamples = 3\nvalue = [0, 0, 1, 0, 0, 0, 0, 0, 2, 0]"] ;
281 -> 282 ;
283 [label="gini = 0.0\nsamples = 2\nvalue = [0, 0, 0, 0, 0, 0, 0, 0, 2, 0]"] ;
282 -> 283 ;
284 [label="gini = 0.0\nsamples = 1\nvalue = [0, 0, 1, 0, 0, 0, 0, 0, 0, 0]"] ;
282 -> 284 ;
285 [label="gini = 0.0\nsamples = 2\nvalue = [2, 0, 0, 0, 0, 0, 0, 0, 0, 0]"] ;
281 -> 285 ;
286 [label="Feature_10 <= 14.0\ngini = 0.2266\nsamples = 16\nvalue = [0, 14, 0, 0, 0, 1, 0, 0, 1, 0]"] ;
274 -> 286 ;
287 [label="gini = 0.0\nsamples = 14\nvalue = [0, 14, 0, 0, 0, 0, 0, 0, 0, 0]"] ;
286 -> 287 ;
288 [label="Feature_46 <= 1.0\ngini = 0.5\nsamples = 2\nvalue = [0, 0, 0, 0, 0, 1, 0, 0, 1, 0]"] ;
286 -> 288 ;
289 [label="gini = 0.0\nsamples = 1\nvalue = [0, 0, 0, 0, 0, 0, 0, 0, 1, 0]"] ;
288 -> 289 ;
290 [label="gini = 0.0\nsamples = 1\nvalue = [0, 0, 0, 0, 0, 1, 0, 0, 0, 0]"] ;
288 -> 290 ;
}